static const float dense0_kernel[] = {
    -0.50561440, -0.00896857, 0.20318307, -0.20156284, 0.14753261, -0.23926039, -0.25265110, -0.46206325,
    0.61811250, -0.46733856, -0.03384394, -0.25827396, -0.90207750, -0.19894734, -0.16457525, -0.21424671,
    -0.02899317, -0.42992082, 0.15831019, 0.15749647, 0.38523489, 0.52533460, -0.07782277, 0.03047978,
    -1.42335021, -0.59277260, 0.05868557, -0.06436880, -0.80322599, 0.48008293, 0.37331158, 0.07043704,
    0.17974299, -0.19622181, -0.74494183, -1.26072609, 0.15318199, 0.04810436, 0.54484761, -0.10664640,
    -1.38679314, 0.28661844, 0.20326033, 0.29712719, 0.04988805, 0.02269945, -0.27252129, -0.36851433,
    0.12777139, 0.40307027, 0.28698477, -0.58541250, -2.00983024, 0.25374824, -0.22550306, 0.12865427,
    0.53762227, 0.07085373, 0.25284132, 0.62878948, 0.13565913, 0.38229138, 0.49880904, 0.12827028,
    0.80741894, 0.27784804, -0.38192141, 0.69469672, -0.77366865, 0.60644323, 0.18025024, -0.33049840,
    0.11985167, -0.25196144, -0.47154164, -0.19429353, 0.16780247, 0.73450089, 0.93904406, 0.03140287,
    0.46118429, 0.34557605, -0.04193525, -0.34648266, 0.63373142, 0.32552031, -0.13159779, -0.55610019,
    -0.24758719, 0.52245021, 0.71657497, -0.34420213, 0.12990698, 0.47903839, -1.90530324, -0.02492940,
    0.34052151, -0.31597316, -0.31183568, 0.11330466, -0.01869167, 0.27736387, -0.88552672, -0.42178279,
    -0.22557810, -0.37303093, -0.09729568, 0.03561455, -0.32018846, -0.88561934, 0.08847798, 0.20373550,
};

static const float dense0_bias[] = {
    -0.15662232, 0.22472835, -0.17352585, 0.24836625, -0.32930174, 0.18392839, 0.06475364, 0.41924298,
};

static const float dense1_kernel[] = {
    0.18911876, 0.22993967, -0.23060806, 0.86038297, 0.73173070, 0.14611176, -0.08445487, 0.02487417,
    0.09779952, 0.61353886, 0.42702278, 0.83686972, -0.74068952, -0.10739391, -0.78131628, 0.62572229,
    -0.08860879, -0.61324728, 0.42775002, -1.29678643, 0.18744160, 0.69520801, 1.01090252, -0.49708584,
    -0.79116976, 0.64495289, -1.16635084, 1.34799540, 0.17141131, -0.12647706, 0.35106438, -0.25455931,
    0.30678844, 0.50598115, -1.10736537, 0.93027478, -0.29727238, -0.16915005, -0.52119517, 0.29055631,
    0.28034478, 0.88649660, 0.00107176, 0.47706568, -0.55105448, -0.37662873, -0.36071804, 0.20833406,
    0.69271559, 0.20471561, 0.29935372, -0.44654766, 0.27677691, 0.43032965, 0.35807195, -0.32464904,
    -0.25762418, -0.40873325, 0.28657812, -0.56932408, 0.25366285, 0.45148677, 0.43105644, 0.34475896,
};

static const float dense1_bias[] = {
    -0.65449834, 0.34250847, -0.04294496, -0.51669580, -0.34891665, 0.44101301, 0.02857733, 0.08129813,
};

static const float dense2_kernel[] = {
    0.04159815, -0.17267156, 0.11428314, -0.92481852, -0.46635020, 0.41865367, 0.53881258, 0.49196976,
    0.28242147, -0.45131990, 0.25878644, 1.27704406, 1.01095295, -0.13606527, 0.45578012, 0.29996416,
    -0.63902897, 0.59248912, -0.35579011, -0.90182096, -0.62404156, 0.38553500, 0.31839898, 0.08254083,
    -0.73632228, 0.89401150, -0.33020365, -0.36750895, 0.11270700, 1.11262679, -0.13123551, 0.12226460,
    0.00308002, 0.33738840, -0.36280310, -0.81118435, -0.72581917, 0.54475248, 0.25692487, 0.12319973,
    -0.49312603, -0.47759664, -0.45540249, -0.01594281, -0.25086188, -0.46728230, -0.02884626, -0.31978679,
    0.09312293, -0.55873442, 0.48074314, 0.08427150, 0.05601748, -0.45132646, 0.72707868, 0.02979210,
    -0.00086244, 0.47349149, -0.33877468, 0.59391606, 0.19245131, 0.94621652, 0.02683636, -0.26546472,
    0.82780898, -0.03325054, -0.23886496, 1.30997002, 0.35351568, 0.12265074, 0.53457290, -0.28388685,
    0.51559699, -0.72011393, -0.51963407, 0.01178544, -0.12634917, -0.30248535, -0.32110691, 0.16761798,
    -0.09489999, 0.34681085, -0.05763072, -0.22321579, -0.17207803, -0.28869584, -0.57136893, -0.09672134,
    -0.30075043, -0.37685460, 0.20306021, -0.39368016, -0.19235297, 0.37029588, -0.20456636, -0.25152493,
    0.11370984, 0.61400300, -0.97433388, 0.33916810, 0.61204630, 0.15201867, -0.80816418, -0.66005999,
    0.25690919, 0.68509018, 0.05393493, 0.74011415, 0.27921686, 0.31514606, -0.14647004, -0.51719314,
    0.72499084, -0.15158907, -1.11676562, 0.54884028, -0.15170065, -0.11888975, -0.24316767, -0.41268435,
    -0.48707908, 0.11542250, 0.78610146, -0.42083377, -0.29051325, 0.15425998, 0.57263976, 0.48371169,
};

static const float dense2_bias[] = {
    0.60318428, -0.33044192, 0.62199271, 0.14746895, 0.82573080, 0.00000000, -0.07861923, 0.34342885,
    -0.64980578, 0.12137485, -0.13123478, -0.11850043, -0.43874678, 0.15807892, 0.59277117, 0.08119316,
};

static const float dense3_kernel[] = {
    -0.87130815, 0.12371376, -0.74042088, 0.32324445, -1.58012366, -0.40020972, -0.35340515, 0.29330242,
    1.05180621, 0.03575614, 0.03148857, -0.01178841, 0.21196023, 0.63066673, -0.37293395, -0.93648767,
    0.11732233, -0.82769310, 0.98044437, 0.42204779, 0.91542095, 0.13413632, -0.50736040, 0.11821251,
    -1.06237018, 0.85079479, 0.20336717, -0.32713664, -0.63306499, -0.22706698, 1.28587449, -0.01903172,
    0.22502016, -0.09464686, 0.05810045, -1.22927260, -0.28879452, -0.06151396, 0.46430963, -1.08594608,
    0.51675326, 0.07314468, -0.15097167, -0.35197073, -0.59624422, -0.98455268, -0.30321974, 0.86141723,
};

static const float dense3_bias[] = {
    -0.52978992, 0.51843655, -0.28901660,
};