static const float dense0_kernel[] = {
    0.53754139, -0.34045544, 0.39919481, 0.03383585, 0.36282009, -0.20484899, -0.17620443, -0.19969594,
    0.46340668, -0.56306034, 0.15739767, -0.04653430, -0.53889734, -0.69613248, -0.02329913, 0.33683193,
    -0.11651836, -0.20333920, 0.22585432, -0.67039454, 0.11725124, -0.42093331, -0.03978767, -0.11486426,
    0.42561898, -0.48926654, 0.24562827, 0.17415789, 0.15952069, 0.36889473, -0.52781808, -0.08884893,
    -0.86149842, 0.41926649, -0.55674183, 0.19133043, 0.15043212, -0.22659686, -0.17856799, -0.38116768,
    0.29643285, 0.45698956, -0.14799795, -0.00329376, -0.13524079, 0.49500221, -0.49244696, 0.14138332,
    0.43536928, 0.38893527, -0.04217335, -0.09279142, -0.40685377, 0.09506965, 0.33842590, 0.20869833,
    0.76501578, -0.01266095, -0.21534951, -0.24533312, -0.33033442, 0.33566374, -0.28177997, -0.72704154,
    0.10618488, -0.44308373, 0.35088357, 0.08724560, 0.44399962, 0.05724105, -0.32073483, 0.10335237,
    -0.31701943, 0.63098681, 0.06561421, -0.42553517, 0.65563267, -0.32938129, 0.12809201, 0.49964979,
    0.11114775, -0.16506773, -0.25887299, 0.23419732, -0.26684353, -0.65706408, 0.08763303, 0.01108441,
    -0.45601842, -0.30124146, 0.08596264, 0.43662384, -0.41969913, -0.45846087, -0.36712641, 0.00467025,
};

static const float dense0_bias[] = {
    0.02192751, 0.28408003, 0.23537390, -0.01634122, -0.07447673, 0.14387870, 0.02334919, 0.34531310,
};

static const float dense1_kernel[] = {
    -0.23036261, 0.24586174, 0.75815725, -0.24226990, -0.29536676, 0.03677023, -0.10663320, 0.77674437,
    -0.43534613, -0.65439028, -0.17065512, 0.74619395, -0.08162799, 0.21668682, 0.30189762, -0.81152201,
    0.44619101, 0.60643888, 0.33763900, 0.39892131, -0.81942725, -0.14704311, -0.14228757, 0.60073000,
    0.67029792, -0.42262223, -0.16454004, 0.07325595, 0.41612622, -0.10117298, -0.02267273, -0.28836516,
    0.37897828, 0.38312745, -0.48885626, -0.17564784, -0.03217345, 0.67882180, 0.22390671, 0.24389823,
    -0.46166667, -0.77372551, -0.20297915, -0.09478322, 0.02611247, 0.16408053, 0.50081915, -0.43983281,
    0.31490701, 0.73522198, -0.25130314, -0.25862420, -0.61662346, 0.02111510, 0.01862288, 0.48819384,
    0.36393279, 0.20430608, -0.21691830, 0.09087542, -0.41908816, 0.07706193, 0.54333085, -0.11679501,
};

static const float dense1_bias[] = {
    0.26562729, -0.01479901, 0.22167911, 0.18898156, 0.13380265, 0.10660741, 0.18789597, 0.11703424,
};

static const float dense2_kernel[] = {
    -0.20581952, 0.09973075, -0.07504451, -0.35074577, -0.06053903, 0.70408702, -0.56572032, 0.28157997,
    -0.25493026, 0.16906299, 0.17524837, 0.00161723, 0.43693596, -0.26529741, 0.12999028, 0.18778679,
    0.18663469, 0.03045588, 0.45794985, -0.62534350, -0.60953194, -0.45410764, -0.02567790, 0.25277305,
    -0.43713695, -0.18963763, -0.32081875, -0.37191013, 0.16907920, -0.40378234, 0.16588448, -0.32342735,
    -0.29522651, 0.44387758, -0.16496980, 0.39334273, 0.24836956, 0.66090792, 0.48596787, 0.02388728,
    -0.31484598, -0.42617443, 0.10607404, 0.38520092, 0.30792883, 0.61178279, 0.56420124, 0.44451788,
    -0.84546947, 0.21050367, -0.07451760, 0.69854379, -0.01245819, 0.60403657, -0.39127746, 0.09332297,
    0.45053589, 0.33868533, 0.14615522, -0.65116793, 0.04235130, -0.01805711, -0.14151302, -0.51357126,
    -0.06665393, 0.01576865, -0.23031649, 0.28816664, 0.76260829, 0.53023988, 0.40444636, 0.49566594,
    0.72043866, -0.19782463, 0.83485568, -0.14282696, 0.02845597, 0.12940075, 0.66743684, 0.46772018,
    0.02559024, -0.64127672, -0.04515505, 0.32331455, 0.62128437, -0.25848281, 0.74506211, 0.30998254,
    0.54789799, 0.38135341, -0.01465749, -0.21096133, -0.17753877, 0.32329071, -0.18253583, -0.45897883,
    -0.48902076, 0.74899518, -0.18253420, -0.26199201, 0.32018933, 0.06214107, 0.07300641, 0.05245142,
    0.26619783, 0.43793443, 0.57246912, -0.72851026, -0.56734180, -0.54903913, 0.20978256, -0.41187942,
    -0.03220179, -0.44947648, -0.37139153, -0.28797707, -0.44676062, -0.45879951, 0.40416086, 0.33952871,
    -0.48647055, 0.47184619, -0.38269714, -0.25130284, -0.09469528, 0.55323672, 0.08127704, -0.10045355,
};

static const float dense2_bias[] = {
    -0.11043074, 0.10712276, 0.10789427, -0.09061345, 0.20125192, 0.10574276, 0.12281031, 0.17397377,
    0.09625115, 0.06886085, 0.11527429, 0.16231439, -0.08327021, 0.18178730, -0.01063396, 0.09910037,
};

static const float dense3_kernel[] = {
    -0.13351327, -0.73904443, 0.85573834, 0.10587691, 0.10277716, -0.31893325, -0.67644471, 0.40962490,
    -0.86343598, 0.63201344, -0.84567660, 0.52124107, 0.27178419, 0.73302442, -0.05281165, -0.37592474,
    0.06636663, 0.13041537, -0.80992532, 0.20860730, 0.41772926, 0.53634197, -0.74777418, -0.61538839,
    0.27507347, 0.65453839, 0.39445931, -0.65650213, 0.11752084, -0.27893674, 0.01972605, -0.80534983,
    0.69904053, 0.05096442, -0.23322445, -0.23345762, 0.67374378, 0.48286486, 0.62921333, -0.78227186,
    0.38281178, -0.76305240, -0.21849978, -0.58567309, 0.44444174, -0.27442104, 0.47252628, 0.58893335,
};

static const float dense3_bias[] = {
    0.02201643, 0.02875861, -0.03427799,
};